{
    "weights": [
        [
            [
                0.097,
                -0.107,
                0.021,
                0.058,
                0.133,
                0.061,
                0.094,
                0.045,
                -0.149,
                -0.125,
                0.11,
                -0.133,
                0.086,
                0.133
            ],
            [
                0.004,
                -0.007,
                0.077,
                0.02,
                -0.098,
                0.093,
                -0.145,
                -0.02,
                -0.102,
                -0.01,
                -0.052,
                -0.143,
                -0.018,
                0.018
            ],
            [
                -0.114,
                -0.079,
                -0.049,
                -0.127,
                -0.023,
                0.022,
                0.046,
                -0.092,
                0.046,
                -0.127,
                0.093,
                -0.122,
                -0.122,
                0.115
            ],
            [
                -0.12,
                0.077,
                0.093,
                -0.138,
                -0.033,
                -0.024,
                0.149,
                -0.047,
                -0.143,
                0.02,
                0.098,
                0.118,
                -0.137,
                0.133
            ],
            [
                0.053,
                -0.038,
                0.004,
                -0.032,
                -0.148,
                0.091,
                -0.036,
                0.119,
                -0.129,
                -0.003,
                0.025,
                0.081,
                0.041,
                0.043
            ],
            [
                -0.063,
                -0.135,
                -0.025,
                -0.051,
                -0.148,
                0.033,
                0.033,
                0.133,
                0.129,
                -0.118,
                -0.001,
                -0.045,
                0.091,
                -0.081
            ],
            [
                0.01,
                -0.042,
                -0.035,
                -0.017,
                0.136,
                -0.135,
                0.041,
                -0.12,
                0.093,
                -0.117,
                -0.009,
                0.097,
                0.099,
                -0.007
            ],
            [
                -0.106,
                0.103,
                0.136,
                -0.051,
                0.038,
                0.048,
                0.101,
                -0.026,
                0.133,
                -0.107,
                0.044,
                0.022,
                0.008,
                0.092
            ]
        ],
        [
            [
                -0.069,
                -0.002,
                -0.053,
                0.07,
                0.066,
                -0.16,
                -0.13,
                -0.097
            ],
            [
                0.083,
                -0.022,
                -0.044,
                -0.136,
                -0.158,
                0.03,
                0.116,
                0.172
            ]
        ],
        [
            [
                -0.209,
                -0.252
            ],
            [
                -0.119,
                -0.194
            ]
        ]
    ],
    "biases": [
        [
            0.055,
            0.148,
            0.007,
            0.149,
            0.128,
            0.058,
            -0.064,
            -0.146
        ],
        [
            -0.039,
            -0.145
        ],
        [
            0.293,
            -0.719
        ]
    ]
}